conv1d/kernel:0
(3, 1, 128)
[[[-0.00207628 -0.07649074 -0.03372934  0.14230278 -0.0627659
    0.06369786  0.05538068 -0.05382434  0.06957501  0.06998203
    0.01331859  0.01785799 -0.00744795 -0.08443042  0.03780516
    0.04400637  0.10130765  0.08970691  0.06161696 -0.01346743
   -0.09292506 -0.00775425  0.08610385  0.04828961  0.01195837
   -0.12310787 -0.01145     0.08086456 -0.08448511 -0.04215743
    0.11288184 -0.0018205  -0.03301438 -0.01946253  0.08044888
   -0.01129266 -0.07189845  0.08179221  0.11779973 -0.00544532
    0.01108743 -0.01204672  0.00930356  0.02052052  0.09620677
   -0.05273077 -0.02887381  0.05345757  0.09560734  0.00645685
    0.02436855 -0.05931705 -0.01591362 -0.07991854 -0.05931556
    0.0403769   0.0685157  -0.07968504 -0.007004    0.0731077
    0.13669783  0.09154785 -0.02245182  0.04833034 -0.09463392
   -0.0842635  -0.04802928  0.01994239 -0.12745708 -0.09763642
    0.03333488  0.10589843  0.12636387 -0.03209706 -0.08388763
    0.0951414   0.12481948  0.13368556  0.09779235  0.03513508
    0.05979096 -0.00799602  0.14152741 -0.06987002 -0.01572045
    0.07231279  0.0818366  -0.00170879 -0.02501778 -0.14117442
    0.0124497  -0.04722209  0.09739816 -0.05925009 -0.01757877
    0.04815398  0.13326898  0.02023974 -0.11418289 -0.04230116
    0.02001951  0.08106492 -0.01886517 -0.08225626  0.07526411
    0.04895752  0.07141851  0.02068298  0.08863366 -0.08474507
    0.04419604 -0.00823039  0.11568113  0.01713328 -0.12260658
   -0.03895563 -0.03978525  0.03157527  0.035134   -0.03999483
    0.0076169   0.09765151 -0.00077055 -0.01420841 -0.02092245
    0.06954338  0.09537134 -0.00204644]]

 [[-0.07131398 -0.0757226   0.05305156  0.0131716   0.00795891
    0.00790876  0.0627534   0.06941438 -0.09949436 -0.12175402
    0.05310586  0.04233995 -0.03197958 -0.03534799 -0.00454736
   -0.00383582  0.01914812 -0.01933027 -0.06459317  0.06957052
    0.06318241  0.11575093  0.1044042   0.06124396  0.06991871
   -0.0405039   0.02302601 -0.00124435 -0.07441798  0.1298191
    0.07714038  0.03964331  0.03489718  0.07771157  0.04794316
   -0.0304381  -0.09036449 -0.00511469 -0.01240848 -0.11447379
    0.02175495  0.10764123  0.14170597 -0.00218439 -0.14128953
   -0.05460613 -0.05161687 -0.00584369 -0.04407229  0.03001714
    0.05388092  0.00980829  0.09070397  0.08461247  0.03739389
    0.05185224 -0.03643356 -0.0963695  -0.06099784  0.01907265
   -0.04457989 -0.12774238 -0.09408608  0.00314845  0.01849576
   -0.09482189 -0.08400951 -0.00445372  0.03269588 -0.11468828
   -0.01689953 -0.03444345  0.10282888  0.0170913  -0.10234407
    0.08836217  0.01726628 -0.04664637 -0.0713523   0.12318183
    0.02168651 -0.07974939 -0.03402536  0.0592385  -0.11647999
   -0.11835423  0.0253729  -0.08801555 -0.02542222 -0.08314636
    0.13152826 -0.08382913 -0.07792803 -0.07897434 -0.08416702
    0.08893582 -0.05301779  0.03519721 -0.09108192 -0.06821829
    0.14942287  0.07775021 -0.06582756  0.05632135  0.01020902
    0.13163167 -0.06251936 -0.01605408 -0.10020712 -0.0566446
    0.03589106  0.09247933 -0.05425856  0.04842047 -0.1160652
   -0.07027302 -0.10230461  0.05109553  0.01100154  0.10131752
   -0.01009628 -0.05627568 -0.05268202 -0.09409352 -0.08173492
   -0.01523619 -0.02392224 -0.05357502]]

 [[-0.0945448   0.09558336 -0.03274703 -0.06364161 -0.12700887
    0.05472951 -0.09190256 -0.0307305   0.10205219  0.03815436
   -0.1197885   0.10880024 -0.04102883  0.14028892 -0.07670975
    0.02392656 -0.03047865  0.01719331 -0.05141457  0.04741616
    0.13155694  0.11188017 -0.06722417  0.03800574 -0.10259998
   -0.05994054  0.13604008 -0.02525143 -0.0593005  -0.06211273
    0.11459027 -0.0665471  -0.02850842  0.01752343 -0.02514417
    0.10834219 -0.11667831  0.03153109 -0.05308043 -0.05443816
   -0.03948158 -0.0743591   0.03117624  0.11453857 -0.01377203
   -0.08756812  0.08803979  0.02237656  0.06000806  0.07663967
    0.06056087  0.11263768  0.02812934  0.04970351  0.02579267
    0.04564023  0.02309037  0.00505234 -0.13274646 -0.0211378
    0.04222779  0.12289472 -0.04336174 -0.09688332 -0.00504639
   -0.10444753  0.0827643  -0.1006984   0.02614084 -0.04472598
    0.04446271  0.02504593 -0.01412416 -0.09867442  0.12170573
    0.01793631 -0.0503121  -0.02155865  0.07168797 -0.04288981
   -0.08772871 -0.03889646 -0.07535586 -0.07238925  0.00801757
   -0.04496339 -0.00212737  0.03140557 -0.00248788  0.07402675
   -0.00555161 -0.06960417 -0.02854532 -0.06543158  0.05786923
    0.0427214   0.13110904  0.09247779 -0.06811561 -0.09144688
    0.00413019  0.01951014  0.13481644  0.11027142  0.08477061
   -0.02509077 -0.0715232  -0.003731   -0.09033536  0.02230951
    0.01578897 -0.03334159  0.02760229  0.09204155 -0.03329918
    0.06203203 -0.05796095  0.10851682  0.03003344 -0.02727357
    0.11885382 -0.08976839 -0.10534908  0.04147236 -0.08002429
    0.05120277  0.01862213 -0.09520405]]]
conv1d/bias:0
(128,)
[ 0.          0.02762205  0.04253929 -0.03528171  0.03222371 -0.04721996
  0.0538044   0.0297047  -0.00215588  0.03155516 -0.02367357 -0.09959238
 -0.00489021 -0.05284762 -0.00826721 -0.0703457   0.01221733  0.02538083
  0.05554217  0.0198528   0.07131171 -0.05172348 -0.03260261 -0.1243182
  0.00926891  0.          0.01934908 -0.08596677  0.          0.03911386
  0.01095324  0.05152912  0.06584324  0.01843257 -0.11098454  0.0526128
  0.          0.04643429  0.02701776  0.          0.05925353  0.06767453
  0.00350995 -0.10496575  0.0375682   0.         -0.04987258  0.02391239
 -0.05563534  0.01212801  0.0037391  -0.01733776 -0.0463024   0.04004373
  0.03254097 -0.04410074 -0.06416821 -0.0247294  -0.01281454 -0.02248886
 -0.07977227 -0.02231782  0.          0.04982084  0.02975875  0.
 -0.05141758 -0.02584077  0.0007845   0.         -0.04085302 -0.02688234
 -0.06695187 -0.00901411 -0.03450612  0.0169396  -0.02763699 -0.09032325
 -0.06758557  0.02213226  0.05757297  0.         -0.01199763  0.00162366
 -0.0027576  -0.06088239 -0.05708426  0.05539152  0.         -0.01229902
 -0.03259453  0.         -0.0090696   0.         -0.06265393 -0.04471458
  0.0411883  -0.04107567  0.          0.          0.01896851  0.01907791
 -0.05607038  0.03780884 -0.07354157 -0.05380053 -0.0103609   0.0254391
 -0.02937722 -0.00088335  0.02368925 -0.02344069 -0.02345696 -0.06262371
  0.          0.05015686  0.          0.00439986  0.01144722  0.03727797
 -0.038406    0.06068425  0.          0.02487958  0.          0.00851384
  0.03967437  0.        ]
batch_normalization/gamma:0
(128,)
[1.         1.0069803  1.0158536  0.9903379  0.99179673 1.0136399
 1.0021819  0.9745368  0.9923307  1.0111275  1.0069059  1.0021976
 0.98850065 1.0247113  1.0067018  1.0292321  0.991669   0.9895644
 1.0089834  1.018881   1.0086776  0.999757   1.004912   1.0077364
 0.99288076 1.         1.0232668  0.99900717 1.         1.0090507
 1.0041897  0.98660487 0.99293184 0.99664485 1.0036113  1.0305121
 1.         1.0133094  0.98857373 1.         0.9828811  0.99875563
 0.98392385 1.0322024  0.99683136 1.         1.0023474  0.9923538
 1.0197654  1.0286136  1.0081556  1.021359   0.989188   1.032891
 1.0089992  1.0370435  1.0207866  0.99164623 0.9949782  0.9976675
 1.0269499  0.984011   1.         0.9902975  0.9843016  1.
 1.000913   0.9926007  0.99687487 1.         1.0100753  1.0200456
 1.0227467  1.0328282  1.0154108  1.018793   1.0103593  1.01965
 1.0234827  0.99209577 0.9988003  1.         0.965767   0.9910724
 0.9896629  0.98716563 1.0231222  0.9802784  1.         0.98230594
 1.0108461  1.         0.9900991  1.         0.99094033 1.0140377
 0.9945034  1.0311501  1.         1.         1.0225236  1.0353291
 1.0073402  0.98672116 1.0345074  0.98506016 1.0204196  0.9923986
 0.995402   0.9738907  1.0262403  0.9917875  1.024814   1.0242921
 1.         1.0170263  1.         1.0113163  1.0432388  1.0057355
 0.98134357 0.97636896 1.         0.9830734  1.         1.0051417
 1.002933   1.        ]
batch_normalization/beta:0
(128,)
[ 0.04380321 -0.03047976  0.03367576 -0.03923444 -0.03303625 -0.04202622
  0.02413589 -0.04349239 -0.00028511  0.03236575 -0.04621048 -0.05147737
  0.03619253 -0.03690687 -0.0288992  -0.01471404 -0.0343283   0.00418166
 -0.03256013 -0.00051103 -0.04938541 -0.03595955 -0.01409044 -0.03385792
 -0.00924955 -0.0409004  -0.04519703 -0.02270775 -0.04026894 -0.04461802
 -0.02784507 -0.04131419 -0.02392949 -0.03671254  0.01658666  0.01831006
 -0.04024971 -0.00224744  0.00667664  0.04266964 -0.04366942 -0.03115079
  0.03448444 -0.04819274  0.03101976  0.04071529 -0.00705856 -0.01828585
 -0.00661244  0.01223619  0.03279542 -0.03781999  0.02020221 -0.04261265
  0.038938    0.00630448 -0.04270024 -0.02307251 -0.04170435  0.02738369
 -0.04160609  0.00238727 -0.02039565 -0.01443342 -0.00801671  0.02704578
 -0.04113785 -0.02702624  0.02843387  0.04362197  0.01299393 -0.04557495
 -0.04344295 -0.0173583  -0.04527953 -0.00988232 -0.00888176 -0.03328129
 -0.02144641 -0.0166473  -0.03000751 -0.03510674  0.02450913 -0.02374465
  0.04167023  0.01720187 -0.0503801   0.00439792  0.0437742   0.00444556
  0.03500724 -0.0198136  -0.01595198 -0.04732717  0.01155941 -0.04192518
 -0.02862108  0.02244579 -0.01912463  0.04506661 -0.03499356 -0.04866681
 -0.04669804 -0.037892   -0.04425405 -0.01109071  0.02063407 -0.02246008
  0.0026869   0.01818339 -0.02901135  0.03200063 -0.00333203 -0.0287012
  0.03758078 -0.04694732  0.04374777  0.00599595 -0.04394265 -0.02127898
 -0.0044379  -0.02193292  0.03760714  0.0152702  -0.05010162 -0.02844259
 -0.02309926  0.02788012]
conv1d_1/kernel:0
(3, 128, 64)
[[[ 0.01844747 -0.10848993  0.05453839 ... -0.06962249 -0.02092024
   -0.01740679]
  [-0.09587546  0.06363428  0.06064589 ... -0.0647976   0.06364654
    0.05230223]
  [ 0.0363228  -0.02872401 -0.06055342 ...  0.08456372 -0.04586403
   -0.0458538 ]
  ...
  [ 0.07509317  0.0884867   0.09377636 ...  0.0794572   0.11987428
   -0.04615992]
  [ 0.01393954 -0.06987711  0.02940845 ...  0.02927624  0.11078709
   -0.07894916]
  [ 0.09191914  0.07575231 -0.04975403 ... -0.00664397  0.00336773
   -0.06116439]]

 [[-0.00125312 -0.11295792 -0.11934114 ... -0.01878334  0.06934013
   -0.02060463]
  [-0.03671638  0.04551851  0.00120506 ...  0.07117245  0.09415019
    0.0807227 ]
  [-0.00555619 -0.10009002 -0.12280792 ...  0.08053555  0.04055786
   -0.07195655]
  ...
  [-0.00450379  0.04643022 -0.01814219 ... -0.07831182  0.0673859
    0.064785  ]
  [ 0.05474783 -0.10560993  0.00217044 ...  0.1030808   0.09773496
   -0.07036904]
  [ 0.03578448 -0.07481331 -0.09352936 ... -0.07338748 -0.04448587
    0.0436434 ]]

 [[ 0.09146421  0.01609353  0.05292152 ... -0.106229   -0.04218744
    0.07323579]
  [-0.08463015  0.05491872  0.05021406 ... -0.01794055  0.01684424
   -0.09276642]
  [ 0.0302813  -0.03499116 -0.02212446 ...  0.12018233 -0.03283823
    0.07311558]
  ...
  [ 0.02374403 -0.04655598  0.00013682 ...  0.04156854 -0.02488853
    0.00076015]
  [-0.08237069 -0.02360686  0.00908236 ... -0.030072    0.01363274
    0.03965821]
  [ 0.05428854  0.07235041 -0.02521831 ...  0.08905695  0.08089993
    0.10146406]]]
conv1d_1/bias:0
(64,)
[ 0.00050674 -0.00948877 -0.04086413  0.02719644 -0.03118439  0.01362849
 -0.01208864  0.00515429  0.00542614  0.05279872 -0.03552456 -0.04970053
  0.01591022  0.01529433 -0.01788346 -0.03095326 -0.02196365  0.03705876
  0.01821932  0.0322195   0.03590821 -0.04678301 -0.03773189 -0.03013182
 -0.00558526  0.03112832 -0.01577382  0.02221945  0.03092882  0.03140808
  0.02247394  0.01702448 -0.01511429  0.02731419 -0.03824008  0.0378077
 -0.02762397 -0.02708202  0.04360886 -0.02736426 -0.0044315  -0.02445257
  0.02562284 -0.02842794 -0.02464136 -0.03360297 -0.02965875 -0.04011876
 -0.00197713 -0.04493408  0.01570546  0.01708697  0.01616178  0.01214654
 -0.0202943   0.06035144  0.06134465  0.01805543  0.0257666   0.01610951
 -0.02233458 -0.00741883 -0.00099494  0.03216478]
batch_normalization_1/gamma:0
(64,)
[0.9736367  0.999683   1.0067538  0.98376244 0.99356353 0.99476093
 0.983256   1.0180477  1.0002502  0.98235834 0.95184124 0.9797267
 0.98326004 1.0079854  0.9745801  0.97015756 0.98621136 1.0160713
 0.980868   1.0093553  1.0045413  1.0159581  1.0030153  0.99332094
 1.0006305  1.0187826  0.9799506  1.0106262  1.0066874  0.9915093
 1.013106   1.0204835  0.9766781  1.0182745  0.9830203  1.0043163
 0.995845   1.016527   1.0056305  0.9897986  1.0203935  1.0180693
 1.013434   1.0182313  1.0016549  0.99115753 0.99312603 0.9938274
 1.0063319  0.9977648  1.0084047  1.0163742  1.0223715  0.9924581
 1.013187   0.98018175 1.001272   0.99403846 1.0127118  0.97912765
 1.0024328  1.0148981  1.0213311  1.008815  ]
batch_normalization_1/beta:0
(64,)
[ 3.4173287e-02 -3.1019945e-03  1.8222230e-02 -1.6313985e-02
  2.5941231e-03 -2.4331287e-03  1.8767511e-02 -3.0802039e-02
 -2.5317304e-02  2.6110891e-02  2.9821649e-02  1.4221077e-02
  3.6942828e-02 -7.6552029e-03  1.4910223e-02 -1.9395966e-02
 -1.5037488e-02  1.9729711e-02  1.7105968e-03 -3.4532696e-02
  9.3921209e-03 -6.8453974e-03  4.0820654e-02  7.1434774e-03
  2.5008954e-03 -3.8087778e-02  2.4788015e-02 -1.6955392e-03
  1.6453890e-02  1.7443188e-02 -3.7635915e-02 -1.9843692e-02
  2.4050035e-02 -1.8025042e-02  1.9645974e-02  2.4275579e-02
  2.3703586e-02 -4.6638972e-03  1.0680287e-02 -1.2408275e-02
 -7.5654723e-03 -7.6750158e-03 -1.8291280e-02 -4.8669488e-03
 -6.9958242e-03 -8.5733114e-03  7.9832209e-04 -1.6013455e-03
 -2.3488610e-03  1.2920200e-02 -1.0141456e-02  5.7798205e-03
 -3.4941675e-04  1.5841292e-02  5.4963872e-05  2.6813425e-02
  4.6664268e-02  2.3127113e-02 -1.6933080e-02 -1.4440940e-03
  1.9662916e-03 -3.5424490e-02 -3.2587063e-02  1.9146599e-03]
conv1d_2/kernel:0
(3, 64, 32)
[[[ 0.09863073  0.08342265  0.01387223 ... -0.01223924 -0.13879311
   -0.04708891]
  [-0.00658761 -0.0149073  -0.02660166 ... -0.03353895 -0.05012968
   -0.10267627]
  [-0.00114972 -0.11146542  0.13630803 ... -0.05533221  0.08585722
    0.01375064]
  ...
  [ 0.06087578  0.00511909 -0.04244056 ...  0.08239683  0.10577537
    0.14358102]
  [-0.00817468  0.00982341  0.10845865 ...  0.1636927   0.03351691
    0.01190974]
  [ 0.1390142  -0.11909114 -0.07203668 ... -0.10928455  0.0619773
    0.07431316]]

 [[-0.09437977  0.02726614 -0.1284649  ... -0.11428561  0.04494492
   -0.00558839]
  [ 0.03076073 -0.10404727 -0.0673385  ... -0.03666089 -0.07847943
   -0.08329188]
  [ 0.04568978 -0.06318804 -0.09867676 ... -0.10792688 -0.04608378
    0.09449072]
  ...
  [ 0.00370791  0.05812243  0.06212475 ... -0.11743005 -0.10426406
    0.0246272 ]
  [ 0.00259105 -0.08320467 -0.00229387 ...  0.06955082  0.11298569
   -0.06971809]
  [ 0.10402596 -0.03525066 -0.01970335 ... -0.03429485 -0.04476818
   -0.07788132]]

 [[-0.03783498 -0.01674201  0.08627278 ...  0.0815584  -0.0062332
   -0.15388024]
  [ 0.07545029  0.00610146  0.06447899 ...  0.02819449 -0.01533739
    0.02380071]
  [ 0.0067832  -0.03343065  0.14432912 ... -0.10141955  0.12942474
   -0.09449512]
  ...
  [ 0.15111275  0.06782954  0.04429752 ... -0.06357797 -0.1191276
    0.08390362]
  [ 0.10154999 -0.03690188  0.14432679 ...  0.15233772 -0.04019081
    0.06021795]
  [ 0.00982808 -0.02569593  0.00941852 ... -0.03955753 -0.15560587
    0.08980056]]]
conv1d_2/bias:0
(32,)
[-0.03592017 -0.00266982 -0.02601476  0.02170426 -0.03611513 -0.0250127
  0.01480793  0.00836177 -0.01704105 -0.0298165   0.01027031 -0.0202991
 -0.02419352 -0.0421879  -0.04087354 -0.03411288  0.01345235 -0.06209733
 -0.00621929  0.00441173 -0.01934758  0.00627106 -0.00523966  0.01968469
 -0.02199901 -0.02915949  0.01149766 -0.02261284 -0.01416411  0.00625776
 -0.02883405 -0.0300369 ]
dense/kernel:0
(35456, 2)
[[ 0.02438677 -0.00886867]
 [-0.02094663  0.01790917]
 [-0.03056507  0.02127635]
 ...
 [-0.02729649  0.02991419]
 [-0.0272779   0.02122687]
 [-0.00699371  0.00101693]]
dense/bias:0
(2,)
[ 0.01322566 -0.01322567]
